<?xml version="1.0"?>
<opencv_storage>
<cascade>
  <stageType>BOOST</stageType>
  <featureType>LBP</featureType>
  <height>24</height>
  <width>24</width>
  <stageParams>
    <boostType>GAB</boostType>
    <minHitRate>0.99500000476837158</minHitRate>
    <maxFalseAlarm>0.5</maxFalseAlarm>
    <weightTrimRate>0.94999999999999996</weightTrimRate>
    <maxDepth>1</maxDepth>
    <maxWeakCount>100</maxWeakCount></stageParams>
  <featureParams>
    <maxCatCount>256</maxCatCount>
    <featSize>1</featSize></featureParams>
  <stageNum>10</stageNum>
  <stages>
    <!-- stage 0 -->
    <_>
      <maxWeakCount>3</maxWeakCount>
      <stageThreshold>-0.58441555500030518</stageThreshold>
      <weakClassifiers>
        <_>
          <internalNodes>
            0 -1 59 712379938 62537557 -2012315672 -1092422567 94307700
            1040187263 7690144 -1568740111</internalNodes>
          <leafValues>
            -0.63169163465499878 0.74490886926651001</leafValues></_>
        <_>
          <internalNodes>
            0 -1 21 34211840 4113 1216614416 -805027712 -2128347136
            536936448 -1073147708 -72417255</internalNodes>
          <leafValues>
            -0.62590759992599487 0.67879003286361694</leafValues></_>
        <_>
          <internalNodes>
            0 -1 48 -1883368411 -1372127390 -335577358 -39321804
            -1619173787 -1526857731 -1359497804 -1378298636</internalNodes>
          <leafValues>
            -0.63151395320892334 0.67673039436340332</leafValues></_></weakClassifiers></_>
    <!-- stage 1 -->
    <_>
      <maxWeakCount>5</maxWeakCount>
      <stageThreshold>-0.32089215517044067</stageThreshold>
      <weakClassifiers>
        <_>
          <internalNodes>
            0 -1 8 -357585905 -2005143637 -352403795 -1498480785
            1576957269 1072693117 -419570123 -50610277</internalNodes>
          <leafValues>
            -0.31618759036064148 0.82408660650253296</leafValues></_>
        <_>
          <internalNodes>
            0 -1 42 -926617600 134218272 -1878982640 302481986 69224448
            -1608482430 -1962159616 -85492773</internalNodes>
          <leafValues>
            -0.61274236440658569 0.62526834011077881</leafValues></_>
        <_>
          <internalNodes>
            0 -1 58 -1610209277 -922681325 268517392 -2147347839
            1082349617 -2080342016 -939491257 -286366715</internalNodes>
          <leafValues>
            -0.58698439598083496 0.55293399095535278</leafValues></_>
        <_>
          <internalNodes>
            0 -1 62 -1902934254 -2142625740 1128960128 1687068672
            -1065221583 -1575976957 1091117088 -100810574</internalNodes>
          <leafValues>
            -0.57111591100692749 0.57705730199813843</leafValues></_>
        <_>
          <internalNodes>
            0 -1 22 -269127930 1316896639 -268501001 -1435566722
            -268477076 2078736383 -4738 -18909826</internalNodes>
          <leafValues>
            -0.51405453681945801 0.68578130006790161</leafValues></_></weakClassifiers></_>
    <!-- stage 2 -->
    <_>
      <maxWeakCount>5</maxWeakCount>
      <stageThreshold>-0.21209606528282166</stageThreshold>
      <weakClassifiers>
        <_>
          <internalNodes>
            0 -1 4 1616964864 1112731406 -2030764053 -1064009495
            393500484 -747110499 2104818787 -606601377</internalNodes>
          <leafValues>
            -0.48458150029182434 0.65539109706878662</leafValues></_>
        <_>
          <internalNodes>
            0 -1 15 -541593625 1312456571 -16880029 7666358 -159386364
            -1183613081 1258151719 -435163777</internalNodes>
          <leafValues>
            -0.40979659557342529 0.76541125774383545</leafValues></_>
        <_>
          <internalNodes>
            0 -1 5 -454064369 243400706 -2079096550 -399077118
            1611023651 -1710653434 -1865704412 -303631593</internalNodes>
          <leafValues>
            -0.55656540393829346 0.58778411149978638</leafValues></_>
        <_>
          <internalNodes>
            0 -1 53 -541065913 -1360035861 -595424 1714796471 2122317654
            -1376329882 2097148708 -587989129</internalNodes>
          <leafValues>
            -0.48240044713020325 0.65978699922561646</leafValues></_>
        <_>
          <internalNodes>
            0 -1 28 -205003756 -1002127294 -1056914880 -1576913853
            -670985215 -2147196928 1108448306 -486024229</internalNodes>
          <leafValues>
            -0.55784839391708374 0.58127528429031372</leafValues></_></weakClassifiers></_>
    <!-- stage 3 -->
    <_>
      <maxWeakCount>7</maxWeakCount>
      <stageThreshold>-0.49262610077857971</stageThreshold>
      <weakClassifiers>
        <_>
          <internalNodes>
            0 -1 33 -1911734479 -1971912715 -1342177281 -8601620
            2138537981 -1090535425 -1879281668 -1883488915</internalNodes>
          <leafValues>
            -0.34740883111953735 0.66097837686538696</leafValues></_>
        <_>
          <internalNodes>
            0 -1 27 -2112206509 181668875 1157697945 -394214770
            -1072013241 -293598976 1342708805 -285934848</internalNodes>
          <leafValues>
            -0.52209830284118652 0.49321469664573669</leafValues></_>
        <_>
          <internalNodes>
            0 -1 46 85201237 -1191165931 -1660874409 -174391158
            277414019 -2139094912 -1677715325 -342316711</internalNodes>
          <leafValues>
            -0.50090521574020386 0.54102528095245361</leafValues></_>
        <_>
          <internalNodes>
            0 -1 63 -929101261 -2071425022 -2130656240 -440086251
            1786904615 138412036 1766473728 -373300687</internalNodes>
          <leafValues>
            -0.53509503602981567 0.50740730762481689</leafValues></_>
        <_>
          <internalNodes>
            0 -1 52 -1890383821 201048145 -1068629616 -41774784
            415328785 -326918127 -1713749472 -1276329436</internalNodes>
          <leafValues>
            -0.59165710210800171 0.46425867080688477</leafValues></_>
        <_>
          <internalNodes>
            0 -1 30 -1441650281 691701899 -1861185447 -804749307
            -1475198968 -1736278016 -934182682 -1148409787</internalNodes>
          <leafValues>
            -0.52269935607910156 0.52534162998199463</leafValues></_>
        <_>
          <internalNodes>
            0 -1 47 -1471223399 -499033068 1090605329 -1056802795 239660
            -645300214 -1845493616 -853024740</internalNodes>
          <leafValues>
            -0.53896480798721313 0.55135035514831543</leafValues></_></weakClassifiers></_>
    <!-- stage 4 -->
    <_>
      <maxWeakCount>5</maxWeakCount>
      <stageThreshold>-0.35140219330787659</stageThreshold>
      <weakClassifiers>
        <_>
          <internalNodes>
            0 -1 7 -1072501214 1419828714 -1027707498 1122959039
            1171556112 -1753219113 -730349612 -239345921</internalNodes>
          <leafValues>
            -0.375 0.64823007583618164</leafValues></_>
        <_>
          <internalNodes>
            0 -1 6 -285219017 -2098483289 1073655743 -318833089
            -327332524 -1486389315 -939786650 -203426317</internalNodes>
          <leafValues>
            -0.37776422500610352 0.62543725967407227</leafValues></_>
        <_>
          <internalNodes>
            0 -1 37 -397519017 -834516982 -805170767 -1878523131
            -1329389055 -1602191214 -805158908 -400491536</internalNodes>
          <leafValues>
            -0.58352839946746826 0.44366776943206787</leafValues></_>
        <_>
          <internalNodes>
            0 -1 61 -1816173801 -1610559360 -1845391343 -522844069
            -1056565244 -931135488 -1065217487 -21763295</internalNodes>
          <leafValues>
            -0.55567926168441772 0.49197438359260559</leafValues></_>
        <_>
          <internalNodes>
            0 -1 36 -1049173 -1022951510 2129618608 -1516274061 -8394776
            1142292327 762836304 -721299697</internalNodes>
          <leafValues>
            -0.48586183786392212 0.57179760932922363</leafValues></_></weakClassifiers></_>
    <!-- stage 5 -->
    <_>
      <maxWeakCount>7</maxWeakCount>
      <stageThreshold>-0.42568892240524292</stageThreshold>
      <weakClassifiers>
        <_>
          <internalNodes>
            0 -1 10 -1459638401 -1968341001 -285229163 49870777
            1341605527 1979187197 -285289227 -117518849</internalNodes>
          <leafValues>
            -0.24288107454776764 0.67870485782623291</leafValues></_>
        <_>
          <internalNodes>
            0 -1 3 -805302206 301993986 16941056 -133561708 402858113
            -2013175456 -872349288 -10788289</internalNodes>
          <leafValues>
            -0.49336829781532288 0.46503719687461853</leafValues></_>
        <_>
          <internalNodes>
            0 -1 60 -1550142185 622735 77598806 -225230828 1392994305
            -2120072946 1342615604 -403703453</internalNodes>
          <leafValues>
            -0.46174082159996033 0.49142211675643921</leafValues></_>
        <_>
          <internalNodes>
            0 -1 38 -1964636555 -399409135 -2147478525 -1339031480
            -1727856200 -1073003901 -2046606655 -17653559</internalNodes>
          <leafValues>
            -0.49181920289993286 0.46521976590156555</leafValues></_>
        <_>
          <internalNodes>
            0 -1 31 1343605834 1113989230 -2147483064 -855261151
            13737984 -2013102078 -1870606221 2131614051</internalNodes>
          <leafValues>
            -0.5498090386390686 0.4301307201385498</leafValues></_>
        <_>
          <internalNodes>
            0 -1 25 -1002335488 -712650685 -796880632 923631657
            176325314 -2097151864 9477035 -895272229</internalNodes>
          <leafValues>
            -0.46053159236907959 0.5335959792137146</leafValues></_>
        <_>
          <internalNodes>
            0 -1 13 -1442612697 -1968676863 -2147410678 545654656
            -778763775 1107410961 -878473042 -461125823</internalNodes>
          <leafValues>
            -0.58022749423980713 0.40781128406524658</leafValues></_></weakClassifiers></_>
    <!-- stage 6 -->
    <_>
      <maxWeakCount>7</maxWeakCount>
      <stageThreshold>-0.4658723771572113</stageThreshold>
      <weakClassifiers>
        <_>
          <internalNodes>
            0 -1 9 1646415360 49961535 -827150618 685829948 1845394707
            1870495743 -209781387 -339738793</internalNodes>
          <leafValues>
            -0.40145984292030334 0.57128411531448364</leafValues></_>
        <_>
          <internalNodes>
            0 -1 54 -979758735 -799341759 -922742507 -1849360379
            1636704373 -775814136 -1842998883 -69588408</internalNodes>
          <leafValues>
            -0.41598975658416748 0.52045619487762451</leafValues></_>
        <_>
          <internalNodes>
            0 -1 18 -1072438713 21299641 536892852 537543983 101273717
            -259514368 -1987901120 -1038956217</internalNodes>
          <leafValues>
            -0.48607456684112549 0.4957122802734375</leafValues></_>
        <_>
          <internalNodes>
            0 -1 2 -2108808427 130 85508111 -1861148663 58918982
            -771649086 -1273773181 -607169653</internalNodes>
          <leafValues>
            -0.48267501592636108 0.48896622657775879</leafValues></_>
        <_>
          <internalNodes>
            0 -1 50 -590624775 1194655675 2147411696 1978073072
            -806422532 1191182323 -856160447 -655756109</internalNodes>
          <leafValues>
            -0.45841071009635925 0.55494987964630127</leafValues></_>
        <_>
          <internalNodes>
            0 -1 49 792534901 784138237 -1073840193 -381911041
            1878865783 -404783105 -587268104 -1149329410</internalNodes>
          <leafValues>
            -0.45531302690505981 0.5347362756729126</leafValues></_>
        <_>
          <internalNodes>
            0 -1 16 -713845662 608829521 -804585458 -1575518190
            -2139025406 -2133811191 682052 1986503487</internalNodes>
          <leafValues>
            -0.66408592462539673 0.38210847973823547</leafValues></_></weakClassifiers></_>
    <!-- stage 7 -->
    <_>
      <maxWeakCount>8</maxWeakCount>
      <stageThreshold>-0.65111905336380005</stageThreshold>
      <weakClassifiers>
        <_>
          <internalNodes>
            0 -1 11 -822088129 548405115 1342070398 -2103247237
            1719434822 1744273399 -285313420 -591987339</internalNodes>
          <leafValues>
            -0.29387754201889038 0.59780222177505493</leafValues></_>
        <_>
          <internalNodes>
            0 -1 51 -155458272 1000470499 -1879253121 -1552679115
            -4774096 -134349059 -1879689977 -1074313473</internalNodes>
          <leafValues>
            -0.36727562546730042 0.55516475439071655</leafValues></_>
        <_>
          <internalNodes>
            0 -1 23 -1050476481 1141047319 536871289 -1576665082
            -1853650912 -938999783 -1107031647 -629748864</internalNodes>
          <leafValues>
            -0.4628375768661499 0.44730430841445923</leafValues></_>
        <_>
          <internalNodes>
            0 -1 34 332038797 285245720 -1006632948 -796425358
            1342187736 -1149157247 -914284338 1003784650</internalNodes>
          <leafValues>
            -0.45493519306182861 0.42862620949745178</leafValues></_>
        <_>
          <internalNodes>
            0 -1 43 -680668686 1359192072 46129 -1861746303 -2124881613
            809746507 1074827297 -2126790413</internalNodes>
          <leafValues>
            -0.44255772233009338 0.48679828643798828</leafValues></_>
        <_>
          <internalNodes>
            0 -1 40 -864161157 1356508927 -93536960 157612594 -26018321
            608501750 1171684698 75889455</internalNodes>
          <leafValues>
            -0.39016562700271606 0.56342458724975586</leafValues></_>
        <_>
          <internalNodes>
            0 -1 20 -2117148191 -2003785448 1342230531 -2007990264
            260712763 -1602018816 -1979217908 -1418067836</internalNodes>
          <leafValues>
            -0.53949201107025146 0.42408269643783569</leafValues></_>
        <_>
          <internalNodes>
            0 -1 44 -721433323 1915996029 -1090650117 1870652256
            -457814219 2034237309 -1913195145 -1154075024</internalNodes>
          <leafValues>
            -0.43533551692962646 0.5194326639175415</leafValues></_></weakClassifiers></_>
    <!-- stage 8 -->
    <_>
      <maxWeakCount>8</maxWeakCount>
      <stageThreshold>-0.91762369871139526</stageThreshold>
      <weakClassifiers>
        <_>
          <internalNodes>
            0 -1 1 574549927 577679284 1073737646 -1397035097 1610575742
            1778352127 -134799385 -1396724361</internalNodes>
          <leafValues>
            -0.24596050381660461 0.63701069355010986</leafValues></_>
        <_>
          <internalNodes>
            0 -1 56 -1600440575 -1409252645 -234800842 -1539284397
            403375367 42008730 2047410801 -270540586</internalNodes>
          <leafValues>
            -0.4907802939414978 0.46685272455215454</leafValues></_>
        <_>
          <internalNodes>
            0 -1 55 247607557 402767955 1343225869 -556809895 -905755836
            -653682550 -2011790880 -1128644503</internalNodes>
          <leafValues>
            -0.5243680477142334 0.39386588335037231</leafValues></_>
        <_>
          <internalNodes>
            0 -1 39 -2036325547 -1802870717 4358283 -1185284095
            -871857687 -1030160246 -2113791735 -1364407895</internalNodes>
          <leafValues>
            -0.49155831336975098 0.43113213777542114</leafValues></_>
        <_>
          <internalNodes>
            0 -1 45 -463995583 83919002 1343291442 -1766651830
            -668442351 1216380928 -1877308464 -1601600591</internalNodes>
          <leafValues>
            -0.56491434574127197 0.39974126219749451</leafValues></_>
        <_>
          <internalNodes>
            0 -1 35 1074892480 270106753 1048840 -1257008793 -1329555301
            1140850852 64037513 327486127</internalNodes>
          <leafValues>
            -0.53554230928421021 0.44573253393173218</leafValues></_>
        <_>
          <internalNodes>
            0 -1 12 -17865533 -1692176455 242641798 136337972
            -1207961825 -1082458244 -1491472865 -27565197</internalNodes>
          <leafValues>
            -0.38980624079704285 0.67211443185806274</leafValues></_>
        <_>
          <internalNodes>
            0 -1 0 -2007618753 -1587900381 -2146369261 -2113798141
            46695953 -1605892088 -1962833683 -288952251</internalNodes>
          <leafValues>
            -0.53486883640289307 0.44241681694984436</leafValues></_></weakClassifiers></_>
    <!-- stage 9 -->
    <_>
      <maxWeakCount>9</maxWeakCount>
      <stageThreshold>-0.57986491918563843</stageThreshold>
      <weakClassifiers>
        <_>
          <internalNodes>
            0 -1 17 -1343420123 246300394 2147463099 1785212832 91711253
            1879048191 -1074372867 -860422859</internalNodes>
          <leafValues>
            -0.38903394341468811 0.53982299566268921</leafValues></_>
        <_>
          <internalNodes>
            0 -1 41 1859569460 -1877864415 1476477329 -78073724
            -938807279 -1610481527 -1031724396 -1227299920</internalNodes>
          <leafValues>
            -0.46468773484230042 0.422605961561203</leafValues></_>
        <_>
          <internalNodes>
            0 -1 32 -122534081 -29528194 -65537 -1104134304 -1896071724
            -142770314 -627524 -1708982314</internalNodes>
          <leafValues>
            -0.41487184166908264 0.4721505343914032</leafValues></_>
        <_>
          <internalNodes>
            0 -1 26 35536053 34652230 -1052703973 -198008697 1224745476
            -359366527 -863304759 -155289495</internalNodes>
          <leafValues>
            -0.50844204425811768 0.40992558002471924</leafValues></_>
        <_>
          <internalNodes>
            0 -1 19 142651761 109184001 16843034 -1031557055 -1442701141
            -1977483245 436910819 -1684350848</internalNodes>
          <leafValues>
            -0.50479978322982788 0.43233147263526917</leafValues></_>
        <_>
          <internalNodes>
            0 -1 14 -628632573 1950859792 1090523336 -1064169456
            -1065236480 -889192448 -905969658 1273755907</internalNodes>
          <leafValues>
            -0.50628530979156494 0.47000753879547119</leafValues></_>
        <_>
          <internalNodes>
            0 -1 29 1826335563 -1612021908 -268501147 1039904633
            -134382148 -41099 1778312953 -1094910112</internalNodes>
          <leafValues>
            -0.42802095413208008 0.52518105506896973</leafValues></_>
        <_>
          <internalNodes>
            0 -1 24 1456840576 9961499 335663445 1897070619 1418330305
            -1291679615 -2096430933 -1142976309</internalNodes>
          <leafValues>
            -0.47030401229858398 0.48656737804412842</leafValues></_>
        <_>
          <internalNodes>
            0 -1 57 675677213 -1811808256 -536866171 -535625597
            -2138953664 176292065 -2147358045 -1299570383</internalNodes>
          <leafValues>
            -0.62623274326324463 0.37233379483222961</leafValues></_></weakClassifiers></_></stages>
  <features>
    <_>
      <rect>
        0 4 1 1</rect></_>
    <_>
      <rect>
        0 5 1 1</rect></_>
    <_>
      <rect>
        0 5 1 2</rect></_>
    <_>
      <rect>
        0 5 3 6</rect></_>
    <_>
      <rect>
        0 5 6 5</rect></_>
    <_>
      <rect>
        0 6 2 1</rect></_>
    <_>
      <rect>
        0 7 1 1</rect></_>
    <_>
      <rect>
        0 7 4 4</rect></_>
    <_>
      <rect>
        0 8 1 1</rect></_>
    <_>
      <rect>
        0 8 2 3</rect></_>
    <_>
      <rect>
        0 9 1 1</rect></_>
    <_>
      <rect>
        0 10 1 1</rect></_>
    <_>
      <rect>
        0 10 3 4</rect></_>
    <_>
      <rect>
        0 11 1 1</rect></_>
    <_>
      <rect>
        0 11 3 3</rect></_>
    <_>
      <rect>
        0 15 2 2</rect></_>
    <_>
      <rect>
        0 16 2 1</rect></_>
    <_>
      <rect>
        1 6 1 1</rect></_>
    <_>
      <rect>
        1 18 2 2</rect></_>
    <_>
      <rect>
        2 1 1 1</rect></_>
    <_>
      <rect>
        2 3 1 1</rect></_>
    <_>
      <rect>
        2 9 1 1</rect></_>
    <_>
      <rect>
        2 13 1 1</rect></_>
    <_>
      <rect>
        2 14 1 1</rect></_>
    <_>
      <rect>
        3 6 7 4</rect></_>
    <_>
      <rect>
        4 5 5 4</rect></_>
    <_>
      <rect>
        4 9 1 1</rect></_>
    <_>
      <rect>
        4 13 1 1</rect></_>
    <_>
      <rect>
        5 15 6 3</rect></_>
    <_>
      <rect>
        6 0 4 2</rect></_>
    <_>
      <rect>
        6 1 1 1</rect></_>
    <_>
      <rect>
        6 6 5 6</rect></_>
    <_>
      <rect>
        6 21 1 1</rect></_>
    <_>
      <rect>
        7 0 1 1</rect></_>
    <_>
      <rect>
        7 4 4 2</rect></_>
    <_>
      <rect>
        8 5 3 3</rect></_>
    <_>
      <rect>
        8 14 5 3</rect></_>
    <_>
      <rect>
        8 21 1 1</rect></_>
    <_>
      <rect>
        9 0 1 1</rect></_>
    <_>
      <rect>
        10 0 1 1</rect></_>
    <_>
      <rect>
        11 8 4 5</rect></_>
    <_>
      <rect>
        11 21 1 1</rect></_>
    <_>
      <rect>
        12 6 4 5</rect></_>
    <_>
      <rect>
        12 15 4 3</rect></_>
    <_>
      <rect>
        14 0 3 2</rect></_>
    <_>
      <rect>
        14 20 2 1</rect></_>
    <_>
      <rect>
        15 0 1 1</rect></_>
    <_>
      <rect>
        15 18 2 2</rect></_>
    <_>
      <rect>
        15 20 1 1</rect></_>
    <_>
      <rect>
        17 0 1 1</rect></_>
    <_>
      <rect>
        17 17 2 2</rect></_>
    <_>
      <rect>
        18 6 2 3</rect></_>
    <_>
      <rect>
        18 11 1 1</rect></_>
    <_>
      <rect>
        18 16 2 1</rect></_>
    <_>
      <rect>
        20 1 1 1</rect></_>
    <_>
      <rect>
        20 4 1 1</rect></_>
    <_>
      <rect>
        20 10 1 1</rect></_>
    <_>
      <rect>
        21 4 1 1</rect></_>
    <_>
      <rect>
        21 6 1 1</rect></_>
    <_>
      <rect>
        21 8 1 1</rect></_>
    <_>
      <rect>
        21 9 1 1</rect></_>
    <_>
      <rect>
        21 10 1 1</rect></_>
    <_>
      <rect>
        21 11 1 1</rect></_>
    <_>
      <rect>
        21 14 1 1</rect></_></features></cascade>
</opencv_storage>
